Language model created by QuickLM on Fri Nov 17 07:40:17 EST 2017
Copyright (c) 1996-2010 Carnegie Mellon University and Alexander I. Rudnicky

The model is in standard ARPA format, designed by Doug Paul while he was at MITRE.

The code that was used to produce this language model is available in Open Source.
Please visit http://www.speech.cs.cmu.edu/tools/ for more information

The (fixed) discount mass is 0.5. The backoffs are computed using the ratio method.
This model based on a corpus of 138 sentences and 139 words

\data\
ngram 1=139
ngram 2=275
ngram 3=142

\1-grams:
-0.7844 </s> -0.3010
-0.7844 <s> -0.2206
-2.9243 ACTIVE -0.2231
-2.9243 AFTERNOON -0.3005
-2.4472 AND -0.2231
-2.9243 APPLE -0.2231
-2.9243 ARE -0.2231
-2.9243 ATE -0.2231
-2.9243 BABY -0.3005
-2.9243 BANANA -0.2231
-2.9243 BEEF -0.2231
-2.9243 BEVERAGE -0.2231
-2.9243 BOILED -0.2231
-2.9243 BOWL -0.2231
-2.9243 BREAD -0.2231
-2.9243 BREAKFAST -0.2231
-2.9243 BRUNCH -0.2231
-2.9243 BUTTER -0.2231
-2.9243 CALORIE -0.2231
-2.9243 CANCEL -0.2231
-2.9243 CHEESE -0.2231
-2.9243 CHICKEN -0.2231
-2.9243 CONFRIM -0.2231
-2.9243 CREAM -0.2231
-2.9243 CUCUMBER -0.2231
-2.9243 DESSERT -0.2231
-2.9243 DINNER -0.2231
-2.9243 DISABLE -0.2231
-2.9243 DRESSING -0.2231
-2.9243 DRIED -0.2231
-2.9243 DRY -0.2231
-2.9243 DUCK -0.2231
-2.9243 EAT -0.2231
-2.9243 EGG -0.2231
-2.9243 EIGHT -0.2231
-2.9243 EIGHTEEN -0.2231
-2.9243 EIGHTY -0.2231
-2.9243 ELEVEN -0.2231
-2.9243 ENABLE -0.2231
-2.9243 FAT -0.2231
-2.9243 FEMALE -0.2231
-2.9243 FIFTEEN -0.2231
-2.9243 FIFTY -0.2231
-2.9243 FINE -0.2231
-2.9243 FINISH -0.2231
-2.9243 FINISHED -0.2231
-2.9243 FIVE -0.2231
-2.9243 FOOD -0.2231
-2.9243 FORTY -0.2231
-2.9243 FOUR -0.2231
-2.9243 FOURTEEN -0.2231
-2.9243 FRESH -0.2231
-2.9243 FRIED -0.2231
-2.9243 FRUIT -0.2231
-2.9243 GARIC -0.2231
-2.9243 GRAM -0.2231
-2.9243 GRAPE -0.2231
-2.9243 HAMBURGER -0.2231
-2.9243 HELLO -0.2231
-2.9243 HOW -0.2231
-2.4472 HUNDRED -0.2212
-2.9243 I -0.2231
-2.9243 ICE -0.2231
-2.9243 INTENSIVE -0.2231
-2.9243 IS -0.2231
-2.9243 JUICE -0.2231
-2.9243 KETCHUP -0.2231
-2.9243 KILLO -0.2231
-2.9243 LAMB -0.2231
-2.9243 LATICE -0.2231
-2.9243 LEAF -0.2231
-2.9243 LEAVE -0.2231
-2.9243 LIGHT -0.2231
-2.9243 LITTLE -0.2231
-2.9243 LUNCH -0.2231
-2.9243 MALE -0.2231
-2.9243 ME -0.2231
-2.9243 MEAT -0.2231
-2.9243 MENU -0.2231
-2.9243 MILK -0.2231
-2.9243 MODERATE -0.2231
-2.9243 MOZZARELLA -0.2231
-2.9243 NIGHTY -0.2231
-2.9243 NINE -0.2231
-2.9243 NINETEEN -0.2231
-2.9243 NO -0.2231
-2.9243 NOODLE -0.2231
-2.4472 ONE -0.2212
-2.9243 ONION -0.2231
-2.9243 OUR -0.2231
-2.9243 PEACH -0.2231
-2.9243 PEPPER -0.2231
-2.9243 PICKLE -0.2231
-2.9243 PIZZA -0.2231
-2.9243 PORK -0.2231
-2.9243 POTATO -0.2231
-2.9243 POULTRY -0.2231
-2.9243 PUMPKIN -0.2231
-2.9243 RAW -0.2231
-2.9243 RECOMMEND -0.2231
-2.9243 RECOMMENDATION -0.2231
-2.9243 REFERENCE -0.2231
-2.9243 RICE -0.2231
-2.9243 SALAD -0.2231
-2.9243 SALT -0.2231
-2.9243 SAUCE -0.2231
-2.9243 SET -0.2231
-2.9243 SETTING -0.2231
-2.9243 SEVEN -0.2231
-2.9243 SEVENTEEN -0.2231
-2.9243 SEVENTY -0.2231
-2.9243 SHEEP -0.2231
-2.9243 SIX -0.2231
-2.9243 SIXTEEN -0.2231
-2.9243 SIXTY -0.2231
-2.9243 SOUP -0.2231
-2.9243 SPICES -0.2231
-2.9243 STEAMED -0.2231
-2.9243 SUPPER -0.2231
-2.9243 TEA -0.2231
-2.9243 TEN -0.2231
-2.9243 THIRTEEN -0.2231
-2.9243 THIRTY -0.2231
-2.9243 THREE -0.2231
-2.9243 TOMATO -0.2231
-2.9243 TWELVE -0.2231
-2.9243 TWENTY -0.2231
-2.6232 TWO -0.2212
-2.9243 WATERMELON -0.2231
-2.9243 WHAT -0.2231
-2.9243 WHEY -0.2231
-2.9243 WHY -0.2231
-2.9243 WITH -0.2231
-2.9243 YEP -0.2231
-2.9243 YES -0.2231
-2.9243 YOGURT -0.2231
-2.9243 YOLK -0.2231
-2.9243 YOU -0.2231
-2.9243 ZERO -0.2231

\2-grams:
-2.4409 <s> ACTIVE 0.0000
-2.4409 <s> AFTERNOON 0.0000
-2.4409 <s> AND 0.0000
-2.4409 <s> APPLE 0.0000
-2.4409 <s> ARE 0.0000
-2.4409 <s> ATE 0.0000
-2.4409 <s> BABY 0.0000
-2.4409 <s> BANANA 0.0000
-2.4409 <s> BEEF 0.0000
-2.4409 <s> BEVERAGE 0.0000
-2.4409 <s> BOILED 0.0000
-2.4409 <s> BOWL 0.0000
-2.4409 <s> BREAD 0.0000
-2.4409 <s> BREAKFAST 0.0000
-2.4409 <s> BRUNCH 0.0000
-2.4409 <s> BUTTER 0.0000
-2.4409 <s> CALORIE 0.0000
-2.4409 <s> CANCEL 0.0000
-2.4409 <s> CHEESE 0.0000
-2.4409 <s> CHICKEN 0.0000
-2.4409 <s> CONFRIM 0.0000
-2.4409 <s> CREAM 0.0000
-2.4409 <s> CUCUMBER 0.0000
-2.4409 <s> DESSERT 0.0000
-2.4409 <s> DINNER 0.0000
-2.4409 <s> DISABLE 0.0000
-2.4409 <s> DRESSING 0.0000
-2.4409 <s> DRIED 0.0000
-2.4409 <s> DRY 0.0000
-2.4409 <s> DUCK 0.0000
-2.4409 <s> EAT 0.0000
-2.4409 <s> EGG 0.0000
-2.4409 <s> EIGHT 0.0000
-2.4409 <s> EIGHTEEN 0.0000
-2.4409 <s> EIGHTY 0.0000
-2.4409 <s> ELEVEN 0.0000
-2.4409 <s> ENABLE 0.0000
-2.4409 <s> FAT 0.0000
-2.4409 <s> FEMALE 0.0000
-2.4409 <s> FIFTEEN 0.0000
-2.4409 <s> FIFTY 0.0000
-2.4409 <s> FINE 0.0000
-2.4409 <s> FINISH 0.0000
-2.4409 <s> FINISHED 0.0000
-2.4409 <s> FIVE 0.0000
-2.4409 <s> FORTY 0.0000
-2.4409 <s> FOUR 0.0000
-2.4409 <s> FOURTEEN 0.0000
-2.4409 <s> FRESH 0.0000
-2.4409 <s> FRIED 0.0000
-2.4409 <s> FRUIT 0.0000
-2.4409 <s> GARIC 0.0000
-2.4409 <s> GRAM 0.0000
-2.4409 <s> GRAPE 0.0000
-2.4409 <s> HAMBURGER 0.0000
-2.4409 <s> HELLO 0.0000
-2.4409 <s> HOW 0.0000
-2.4409 <s> HUNDRED -0.2218
-2.4409 <s> I 0.0000
-2.4409 <s> ICE 0.0000
-2.4409 <s> INTENSIVE 0.0000
-2.4409 <s> IS 0.0000
-2.4409 <s> JUICE 0.0000
-2.4409 <s> KETCHUP 0.0000
-2.4409 <s> KILLO 0.0000
-2.4409 <s> LAMB 0.0000
-2.4409 <s> LATICE 0.0000
-2.4409 <s> LEAF 0.0000
-2.4409 <s> LEAVE 0.0000
-2.4409 <s> LIGHT 0.0000
-2.4409 <s> LITTLE 0.0000
-2.4409 <s> LUNCH 0.0000
-2.4409 <s> MALE 0.0000
-2.4409 <s> ME 0.0000
-2.4409 <s> MEAT 0.0000
-2.4409 <s> MENU 0.0000
-2.4409 <s> MILK 0.0000
-2.4409 <s> MODERATE 0.0000
-2.4409 <s> MOZZARELLA 0.0000
-2.4409 <s> NIGHTY 0.0000
-2.4409 <s> NINE 0.0000
-2.4409 <s> NINETEEN 0.0000
-2.4409 <s> NO 0.0000
-2.4409 <s> NOODLE 0.0000
-1.9638 <s> ONE 0.0000
-2.4409 <s> ONION 0.0000
-2.4409 <s> OUR 0.0000
-2.4409 <s> PEACH 0.0000
-2.4409 <s> PEPPER 0.0000
-2.4409 <s> PICKLE 0.0000
-2.4409 <s> PIZZA 0.0000
-2.4409 <s> PORK 0.0000
-2.4409 <s> POTATO 0.0000
-2.4409 <s> POULTRY 0.0000
-2.4409 <s> PUMPKIN 0.0000
-2.4409 <s> RAW 0.0000
-2.4409 <s> RECOMMEND 0.0000
-2.4409 <s> RECOMMENDATION 0.0000
-2.4409 <s> REFERENCE 0.0000
-2.4409 <s> RICE 0.0000
-2.4409 <s> SALAD 0.0000
-2.4409 <s> SALT 0.0000
-2.4409 <s> SAUCE 0.0000
-2.4409 <s> SET 0.0000
-2.4409 <s> SETTING 0.0000
-2.4409 <s> SEVEN 0.0000
-2.4409 <s> SEVENTEEN 0.0000
-2.4409 <s> SEVENTY 0.0000
-2.4409 <s> SHEEP 0.0000
-2.4409 <s> SIX 0.0000
-2.4409 <s> SIXTEEN 0.0000
-2.4409 <s> SIXTY 0.0000
-2.4409 <s> SOUP 0.0000
-2.4409 <s> SPICES 0.0000
-2.4409 <s> STEAMED 0.0000
-2.4409 <s> SUPPER 0.0000
-2.4409 <s> TEN 0.0000
-2.4409 <s> THIRTEEN 0.0000
-2.4409 <s> THIRTY 0.0000
-2.4409 <s> THREE 0.0000
-2.4409 <s> TOMATO 0.0000
-2.4409 <s> TWELVE 0.0000
-2.4409 <s> TWENTY 0.0000
-2.1399 <s> TWO 0.0000
-2.4409 <s> WATERMELON 0.0000
-2.4409 <s> WHAT 0.0000
-2.4409 <s> WHEY 0.0000
-2.4409 <s> WHY 0.0000
-2.4409 <s> WITH 0.0000
-2.4409 <s> YEP 0.0000
-2.4409 <s> YES 0.0000
-2.4409 <s> YOGURT 0.0000
-2.4409 <s> YOLK 0.0000
-2.4409 <s> YOU 0.0000
-2.4409 <s> ZERO 0.0000
-0.3010 ACTIVE </s> -0.3010
-0.3010 AFTERNOON TEA 0.0000
-0.3010 AND </s> -0.3010
-0.3010 APPLE </s> -0.3010
-0.3010 ARE </s> -0.3010
-0.3010 ATE </s> -0.3010
-0.3010 BABY FOOD 0.0000
-0.3010 BANANA </s> -0.3010
-0.3010 BEEF </s> -0.3010
-0.3010 BEVERAGE </s> -0.3010
-0.3010 BOILED </s> -0.3010
-0.3010 BOWL </s> -0.3010
-0.3010 BREAD </s> -0.3010
-0.3010 BREAKFAST </s> -0.3010
-0.3010 BRUNCH </s> -0.3010
-0.3010 BUTTER </s> -0.3010
-0.3010 CALORIE </s> -0.3010
-0.3010 CANCEL </s> -0.3010
-0.3010 CHEESE </s> -0.3010
-0.3010 CHICKEN </s> -0.3010
-0.3010 CONFRIM </s> -0.3010
-0.3010 CREAM </s> -0.3010
-0.3010 CUCUMBER </s> -0.3010
-0.3010 DESSERT </s> -0.3010
-0.3010 DINNER </s> -0.3010
-0.3010 DISABLE </s> -0.3010
-0.3010 DRESSING </s> -0.3010
-0.3010 DRIED </s> -0.3010
-0.3010 DRY </s> -0.3010
-0.3010 DUCK </s> -0.3010
-0.3010 EAT </s> -0.3010
-0.3010 EGG </s> -0.3010
-0.3010 EIGHT </s> -0.3010
-0.3010 EIGHTEEN </s> -0.3010
-0.3010 EIGHTY </s> -0.3010
-0.3010 ELEVEN </s> -0.3010
-0.3010 ENABLE </s> -0.3010
-0.3010 FAT </s> -0.3010
-0.3010 FEMALE </s> -0.3010
-0.3010 FIFTEEN </s> -0.3010
-0.3010 FIFTY </s> -0.3010
-0.3010 FINE </s> -0.3010
-0.3010 FINISH </s> -0.3010
-0.3010 FINISHED </s> -0.3010
-0.3010 FIVE </s> -0.3010
-0.3010 FOOD </s> -0.3010
-0.3010 FORTY </s> -0.3010
-0.3010 FOUR </s> -0.3010
-0.3010 FOURTEEN </s> -0.3010
-0.3010 FRESH </s> -0.3010
-0.3010 FRIED </s> -0.3010
-0.3010 FRUIT </s> -0.3010
-0.3010 GARIC </s> -0.3010
-0.3010 GRAM </s> -0.3010
-0.3010 GRAPE </s> -0.3010
-0.3010 HAMBURGER </s> -0.3010
-0.3010 HELLO </s> -0.3010
-0.3010 HOW </s> -0.3010
-0.7782 HUNDRED </s> -0.3010
-0.4771 HUNDRED AND 0.0000
-0.3010 I </s> -0.3010
-0.3010 ICE </s> -0.3010
-0.3010 INTENSIVE </s> -0.3010
-0.3010 IS </s> -0.3010
-0.3010 JUICE </s> -0.3010
-0.3010 KETCHUP </s> -0.3010
-0.3010 KILLO </s> -0.3010
-0.3010 LAMB </s> -0.3010
-0.3010 LATICE </s> -0.3010
-0.3010 LEAF </s> -0.3010
-0.3010 LEAVE </s> -0.3010
-0.3010 LIGHT </s> -0.3010
-0.3010 LITTLE </s> -0.3010
-0.3010 LUNCH </s> -0.3010
-0.3010 MALE </s> -0.3010
-0.3010 ME </s> -0.3010
-0.3010 MEAT </s> -0.3010
-0.3010 MENU </s> -0.3010
-0.3010 MILK </s> -0.3010
-0.3010 MODERATE </s> -0.3010
-0.3010 MOZZARELLA </s> -0.3010
-0.3010 NIGHTY </s> -0.3010
-0.3010 NINE </s> -0.3010
-0.3010 NINETEEN </s> -0.3010
-0.3010 NO </s> -0.3010
-0.3010 NOODLE </s> -0.3010
-0.4771 ONE </s> -0.3010
-0.7782 ONE HUNDRED -0.1249
-0.3010 ONION </s> -0.3010
-0.3010 OUR </s> -0.3010
-0.3010 PEACH </s> -0.3010
-0.3010 PEPPER </s> -0.3010
-0.3010 PICKLE </s> -0.3010
-0.3010 PIZZA </s> -0.3010
-0.3010 PORK </s> -0.3010
-0.3010 POTATO </s> -0.3010
-0.3010 POULTRY </s> -0.3010
-0.3010 PUMPKIN </s> -0.3010
-0.3010 RAW </s> -0.3010
-0.3010 RECOMMEND </s> -0.3010
-0.3010 RECOMMENDATION </s> -0.3010
-0.3010 REFERENCE </s> -0.3010
-0.3010 RICE </s> -0.3010
-0.3010 SALAD </s> -0.3010
-0.3010 SALT </s> -0.3010
-0.3010 SAUCE </s> -0.3010
-0.3010 SET </s> -0.3010
-0.3010 SETTING </s> -0.3010
-0.3010 SEVEN </s> -0.3010
-0.3010 SEVENTEEN </s> -0.3010
-0.3010 SEVENTY </s> -0.3010
-0.3010 SHEEP </s> -0.3010
-0.3010 SIX </s> -0.3010
-0.3010 SIXTEEN </s> -0.3010
-0.3010 SIXTY </s> -0.3010
-0.3010 SOUP </s> -0.3010
-0.3010 SPICES </s> -0.3010
-0.3010 STEAMED </s> -0.3010
-0.3010 SUPPER </s> -0.3010
-0.3010 TEA </s> -0.3010
-0.3010 TEN </s> -0.3010
-0.3010 THIRTEEN </s> -0.3010
-0.3010 THIRTY </s> -0.3010
-0.3010 THREE </s> -0.3010
-0.3010 TOMATO </s> -0.3010
-0.3010 TWELVE </s> -0.3010
-0.3010 TWENTY </s> -0.3010
-0.6021 TWO </s> -0.3010
-0.6021 TWO HUNDRED -0.1249
-0.3010 WATERMELON </s> -0.3010
-0.3010 WHAT </s> -0.3010
-0.3010 WHEY </s> -0.3010
-0.3010 WHY </s> -0.3010
-0.3010 WITH </s> -0.3010
-0.3010 YEP </s> -0.3010
-0.3010 YES </s> -0.3010
-0.3010 YOGURT </s> -0.3010
-0.3010 YOLK </s> -0.3010
-0.3010 YOU </s> -0.3010
-0.3010 ZERO </s> -0.3010

\3-grams:
-0.3010 <s> ACTIVE </s>
-0.3010 <s> AFTERNOON TEA
-0.3010 <s> AND </s>
-0.3010 <s> APPLE </s>
-0.3010 <s> ARE </s>
-0.3010 <s> ATE </s>
-0.3010 <s> BABY FOOD
-0.3010 <s> BANANA </s>
-0.3010 <s> BEEF </s>
-0.3010 <s> BEVERAGE </s>
-0.3010 <s> BOILED </s>
-0.3010 <s> BOWL </s>
-0.3010 <s> BREAD </s>
-0.3010 <s> BREAKFAST </s>
-0.3010 <s> BRUNCH </s>
-0.3010 <s> BUTTER </s>
-0.3010 <s> CALORIE </s>
-0.3010 <s> CANCEL </s>
-0.3010 <s> CHEESE </s>
-0.3010 <s> CHICKEN </s>
-0.3010 <s> CONFRIM </s>
-0.3010 <s> CREAM </s>
-0.3010 <s> CUCUMBER </s>
-0.3010 <s> DESSERT </s>
-0.3010 <s> DINNER </s>
-0.3010 <s> DISABLE </s>
-0.3010 <s> DRESSING </s>
-0.3010 <s> DRIED </s>
-0.3010 <s> DRY </s>
-0.3010 <s> DUCK </s>
-0.3010 <s> EAT </s>
-0.3010 <s> EGG </s>
-0.3010 <s> EIGHT </s>
-0.3010 <s> EIGHTEEN </s>
-0.3010 <s> EIGHTY </s>
-0.3010 <s> ELEVEN </s>
-0.3010 <s> ENABLE </s>
-0.3010 <s> FAT </s>
-0.3010 <s> FEMALE </s>
-0.3010 <s> FIFTEEN </s>
-0.3010 <s> FIFTY </s>
-0.3010 <s> FINE </s>
-0.3010 <s> FINISH </s>
-0.3010 <s> FINISHED </s>
-0.3010 <s> FIVE </s>
-0.3010 <s> FORTY </s>
-0.3010 <s> FOUR </s>
-0.3010 <s> FOURTEEN </s>
-0.3010 <s> FRESH </s>
-0.3010 <s> FRIED </s>
-0.3010 <s> FRUIT </s>
-0.3010 <s> GARIC </s>
-0.3010 <s> GRAM </s>
-0.3010 <s> GRAPE </s>
-0.3010 <s> HAMBURGER </s>
-0.3010 <s> HELLO </s>
-0.3010 <s> HOW </s>
-0.3010 <s> HUNDRED </s>
-0.3010 <s> I </s>
-0.3010 <s> ICE </s>
-0.3010 <s> INTENSIVE </s>
-0.3010 <s> IS </s>
-0.3010 <s> JUICE </s>
-0.3010 <s> KETCHUP </s>
-0.3010 <s> KILLO </s>
-0.3010 <s> LAMB </s>
-0.3010 <s> LATICE </s>
-0.3010 <s> LEAF </s>
-0.3010 <s> LEAVE </s>
-0.3010 <s> LIGHT </s>
-0.3010 <s> LITTLE </s>
-0.3010 <s> LUNCH </s>
-0.3010 <s> MALE </s>
-0.3010 <s> ME </s>
-0.3010 <s> MEAT </s>
-0.3010 <s> MENU </s>
-0.3010 <s> MILK </s>
-0.3010 <s> MODERATE </s>
-0.3010 <s> MOZZARELLA </s>
-0.3010 <s> NIGHTY </s>
-0.3010 <s> NINE </s>
-0.3010 <s> NINETEEN </s>
-0.3010 <s> NO </s>
-0.3010 <s> NOODLE </s>
-0.4771 <s> ONE </s>
-0.7782 <s> ONE HUNDRED
-0.3010 <s> ONION </s>
-0.3010 <s> OUR </s>
-0.3010 <s> PEACH </s>
-0.3010 <s> PEPPER </s>
-0.3010 <s> PICKLE </s>
-0.3010 <s> PIZZA </s>
-0.3010 <s> PORK </s>
-0.3010 <s> POTATO </s>
-0.3010 <s> POULTRY </s>
-0.3010 <s> PUMPKIN </s>
-0.3010 <s> RAW </s>
-0.3010 <s> RECOMMEND </s>
-0.3010 <s> RECOMMENDATION </s>
-0.3010 <s> REFERENCE </s>
-0.3010 <s> RICE </s>
-0.3010 <s> SALAD </s>
-0.3010 <s> SALT </s>
-0.3010 <s> SAUCE </s>
-0.3010 <s> SET </s>
-0.3010 <s> SETTING </s>
-0.3010 <s> SEVEN </s>
-0.3010 <s> SEVENTEEN </s>
-0.3010 <s> SEVENTY </s>
-0.3010 <s> SHEEP </s>
-0.3010 <s> SIX </s>
-0.3010 <s> SIXTEEN </s>
-0.3010 <s> SIXTY </s>
-0.3010 <s> SOUP </s>
-0.3010 <s> SPICES </s>
-0.3010 <s> STEAMED </s>
-0.3010 <s> SUPPER </s>
-0.3010 <s> TEN </s>
-0.3010 <s> THIRTEEN </s>
-0.3010 <s> THIRTY </s>
-0.3010 <s> THREE </s>
-0.3010 <s> TOMATO </s>
-0.3010 <s> TWELVE </s>
-0.3010 <s> TWENTY </s>
-0.6021 <s> TWO </s>
-0.6021 <s> TWO HUNDRED
-0.3010 <s> WATERMELON </s>
-0.3010 <s> WHAT </s>
-0.3010 <s> WHEY </s>
-0.3010 <s> WHY </s>
-0.3010 <s> WITH </s>
-0.3010 <s> YEP </s>
-0.3010 <s> YES </s>
-0.3010 <s> YOGURT </s>
-0.3010 <s> YOLK </s>
-0.3010 <s> YOU </s>
-0.3010 <s> ZERO </s>
-0.3010 AFTERNOON TEA </s>
-0.3010 BABY FOOD </s>
-0.3010 HUNDRED AND </s>
-0.3010 ONE HUNDRED AND
-0.3010 TWO HUNDRED AND

\end\
