Language model created by QuickLM on Mon Nov 20 09:25:42 EST 2017
Copyright (c) 1996-2010 Carnegie Mellon University and Alexander I. Rudnicky

The model is in standard ARPA format, designed by Doug Paul while he was at MITRE.

The code that was used to produce this language model is available in Open Source.
Please visit http://www.speech.cs.cmu.edu/tools/ for more information

The (fixed) discount mass is 0.5. The backoffs are computed using the ratio method.
This model based on a corpus of 129 sentences and 130 words

\data\
ngram 1=130
ngram 2=258
ngram 3=133

\1-grams:
-0.7837 </s> -0.3010
-0.7837 <s> -0.2203
-2.8943 ACTIVE -0.2230
-2.8943 ADMIN -0.2230
-2.8943 AFTERNOON -0.3005
-2.4172 AND -0.2230
-2.8943 APPLE -0.2230
-2.8943 BANANA -0.2230
-2.8943 BEEF -0.2230
-2.8943 BEVERAGE -0.2230
-2.8943 BOILED -0.2230
-2.8943 BOWL -0.2230
-2.8943 BREAD -0.2230
-2.8943 BREAKFAST -0.2230
-2.8943 BRUNCH -0.2230
-2.8943 BUTTER -0.2230
-2.8943 CALORIE -0.2230
-2.8943 CANCEL -0.2230
-2.8943 CHEESE -0.2230
-2.8943 CHICKEN -0.2230
-2.8943 CODE -0.2230
-2.8943 CONFRIM -0.2230
-2.8943 COUPON -0.2230
-2.8943 CREAM -0.2230
-2.8943 CUCUMBER -0.2230
-2.8943 DESSERT -0.2230
-2.8943 DINNER -0.2230
-2.8943 DISABLE -0.2230
-2.8943 DRESSING -0.2230
-2.8943 DRIED -0.2230
-2.8943 EGG -0.2230
-2.8943 EIGHT -0.2230
-2.8943 EIGHTEEN -0.2230
-2.8943 EIGHTY -0.2230
-2.8943 ELEVEN -0.2230
-2.8943 ENABLE -0.2230
-2.8943 FAT -0.2230
-2.8943 FEMALE -0.2230
-2.8943 FIFTEEN -0.2230
-2.8943 FIFTY -0.2230
-2.8943 FINE -0.2230
-2.8943 FINISH -0.2230
-2.8943 FINISHED -0.2230
-2.8943 FIVE -0.2230
-2.8943 FORTY -0.2230
-2.8943 FOUR -0.2230
-2.8943 FOURTEEN -0.2230
-2.8943 FRESH -0.2230
-2.8943 FRIED -0.2230
-2.8943 FRIEND -0.2230
-2.8943 FRUIT -0.2230
-2.8943 GARIC -0.2230
-2.8943 GRAM -0.2230
-2.8943 GRAPE -0.2230
-2.8943 HAMBURGER -0.2230
-2.8943 HELLO -0.2230
-2.8943 HOW -0.2230
-2.4172 HUNDRED -0.2210
-2.8943 ICE -0.2230
-2.8943 INTENSIVE -0.2230
-2.8943 JUICE -0.2230
-2.8943 KETCHUP -0.2230
-2.8943 KILLO -0.2230
-2.8943 LAMB -0.2230
-2.8943 LATICE -0.2230
-2.8943 LEAF -0.2230
-2.8943 LEAVE -0.2230
-2.8943 LIGHT -0.2230
-2.8943 LITTLE -0.2230
-2.8943 LUNCH -0.2230
-2.8943 MALE -0.2230
-2.8943 MEAT -0.2230
-2.8943 MENU -0.2230
-2.8943 MILK -0.2230
-2.8943 MODE -0.2230
-2.8943 MODERATE -0.2230
-2.8943 MOZZARELLA -0.2230
-2.8943 NINE -0.2230
-2.8943 NINETEEN -0.2230
-2.8943 NINETY -0.2230
-2.8943 NO -0.2230
-2.8943 NOODLE -0.2230
-2.8943 NUTRIENT -0.2230
-2.5933 ONE -0.2210
-2.8943 ONION -0.2230
-2.8943 PEACH -0.2230
-2.8943 PEPPER -0.2230
-2.8943 PICKLE -0.2230
-2.8943 PIZZA -0.2230
-2.8943 PORK -0.2230
-2.8943 POTATO -0.2230
-2.8943 POULTRY -0.2230
-2.8943 RAW -0.2230
-2.8943 RECOMMEND -0.2230
-2.8943 RECOMMENDATION -0.2230
-2.8943 REFERENCE -0.2230
-2.8943 RICE -0.2230
-2.8943 SALAD -0.2230
-2.8943 SALT -0.2230
-2.8943 SAUCE -0.2230
-2.8943 SET -0.2230
-2.8943 SETTING -0.2230
-2.8943 SEVEN -0.2230
-2.8943 SEVENTEEN -0.2230
-2.8943 SEVENTY -0.2230
-2.8943 SHEEP -0.2230
-2.8943 SIX -0.2230
-2.8943 SIXTEEN -0.2230
-2.8943 SIXTY -0.2230
-2.8943 SOUP -0.2230
-2.8943 SPICES -0.2230
-2.8943 STEAMED -0.2230
-2.8943 SUPPER -0.2230
-2.8943 TEA -0.2230
-2.8943 TEN -0.2230
-2.8943 THIRTEEN -0.2230
-2.8943 THIRTY -0.2230
-2.8943 THREE -0.2230
-2.8943 TOMATO -0.2230
-2.8943 TWELVE -0.2230
-2.8943 TWENTY -0.2230
-2.5933 TWO -0.2210
-2.8943 WATERMELON -0.2230
-2.8943 WEIGHT -0.2230
-2.8943 WHAT -0.2230
-2.8943 WITH -0.2230
-2.8943 YES -0.2230
-2.8943 YOGURT -0.2230
-2.8943 YOLK -0.2230
-2.8943 ZERO -0.2230

\2-grams:
-2.4116 <s> ACTIVE 0.0000
-2.4116 <s> ADMIN 0.0000
-2.4116 <s> AFTERNOON 0.0000
-2.4116 <s> AND 0.0000
-2.4116 <s> APPLE 0.0000
-2.4116 <s> BANANA 0.0000
-2.4116 <s> BEEF 0.0000
-2.4116 <s> BEVERAGE 0.0000
-2.4116 <s> BOILED 0.0000
-2.4116 <s> BOWL 0.0000
-2.4116 <s> BREAD 0.0000
-2.4116 <s> BREAKFAST 0.0000
-2.4116 <s> BRUNCH 0.0000
-2.4116 <s> BUTTER 0.0000
-2.4116 <s> CALORIE 0.0000
-2.4116 <s> CANCEL 0.0000
-2.4116 <s> CHEESE 0.0000
-2.4116 <s> CHICKEN 0.0000
-2.4116 <s> CODE 0.0000
-2.4116 <s> CONFRIM 0.0000
-2.4116 <s> COUPON 0.0000
-2.4116 <s> CREAM 0.0000
-2.4116 <s> CUCUMBER 0.0000
-2.4116 <s> DESSERT 0.0000
-2.4116 <s> DINNER 0.0000
-2.4116 <s> DISABLE 0.0000
-2.4116 <s> DRESSING 0.0000
-2.4116 <s> DRIED 0.0000
-2.4116 <s> EGG 0.0000
-2.4116 <s> EIGHT 0.0000
-2.4116 <s> EIGHTEEN 0.0000
-2.4116 <s> EIGHTY 0.0000
-2.4116 <s> ELEVEN 0.0000
-2.4116 <s> ENABLE 0.0000
-2.4116 <s> FAT 0.0000
-2.4116 <s> FEMALE 0.0000
-2.4116 <s> FIFTEEN 0.0000
-2.4116 <s> FIFTY 0.0000
-2.4116 <s> FINE 0.0000
-2.4116 <s> FINISH 0.0000
-2.4116 <s> FINISHED 0.0000
-2.4116 <s> FIVE 0.0000
-2.4116 <s> FORTY 0.0000
-2.4116 <s> FOUR 0.0000
-2.4116 <s> FOURTEEN 0.0000
-2.4116 <s> FRESH 0.0000
-2.4116 <s> FRIED 0.0000
-2.4116 <s> FRIEND 0.0000
-2.4116 <s> FRUIT 0.0000
-2.4116 <s> GARIC 0.0000
-2.4116 <s> GRAM 0.0000
-2.4116 <s> GRAPE 0.0000
-2.4116 <s> HAMBURGER 0.0000
-2.4116 <s> HELLO 0.0000
-2.4116 <s> HOW 0.0000
-2.4116 <s> HUNDRED -0.2218
-2.4116 <s> ICE 0.0000
-2.4116 <s> INTENSIVE 0.0000
-2.4116 <s> JUICE 0.0000
-2.4116 <s> KETCHUP 0.0000
-2.4116 <s> KILLO 0.0000
-2.4116 <s> LAMB 0.0000
-2.4116 <s> LATICE 0.0000
-2.4116 <s> LEAF 0.0000
-2.4116 <s> LEAVE 0.0000
-2.4116 <s> LIGHT 0.0000
-2.4116 <s> LITTLE 0.0000
-2.4116 <s> LUNCH 0.0000
-2.4116 <s> MALE 0.0000
-2.4116 <s> MEAT 0.0000
-2.4116 <s> MENU 0.0000
-2.4116 <s> MILK 0.0000
-2.4116 <s> MODE 0.0000
-2.4116 <s> MODERATE 0.0000
-2.4116 <s> MOZZARELLA 0.0000
-2.4116 <s> NINE 0.0000
-2.4116 <s> NINETEEN 0.0000
-2.4116 <s> NINETY 0.0000
-2.4116 <s> NO 0.0000
-2.4116 <s> NOODLE 0.0000
-2.4116 <s> NUTRIENT 0.0000
-2.1106 <s> ONE 0.0000
-2.4116 <s> ONION 0.0000
-2.4116 <s> PEACH 0.0000
-2.4116 <s> PEPPER 0.0000
-2.4116 <s> PICKLE 0.0000
-2.4116 <s> PIZZA 0.0000
-2.4116 <s> PORK 0.0000
-2.4116 <s> POTATO 0.0000
-2.4116 <s> POULTRY 0.0000
-2.4116 <s> RAW 0.0000
-2.4116 <s> RECOMMEND 0.0000
-2.4116 <s> RECOMMENDATION 0.0000
-2.4116 <s> REFERENCE 0.0000
-2.4116 <s> RICE 0.0000
-2.4116 <s> SALAD 0.0000
-2.4116 <s> SALT 0.0000
-2.4116 <s> SAUCE 0.0000
-2.4116 <s> SET 0.0000
-2.4116 <s> SETTING 0.0000
-2.4116 <s> SEVEN 0.0000
-2.4116 <s> SEVENTEEN 0.0000
-2.4116 <s> SEVENTY 0.0000
-2.4116 <s> SHEEP 0.0000
-2.4116 <s> SIX 0.0000
-2.4116 <s> SIXTEEN 0.0000
-2.4116 <s> SIXTY 0.0000
-2.4116 <s> SOUP 0.0000
-2.4116 <s> SPICES 0.0000
-2.4116 <s> STEAMED 0.0000
-2.4116 <s> SUPPER 0.0000
-2.4116 <s> TEN 0.0000
-2.4116 <s> THIRTEEN 0.0000
-2.4116 <s> THIRTY 0.0000
-2.4116 <s> THREE 0.0000
-2.4116 <s> TOMATO 0.0000
-2.4116 <s> TWELVE 0.0000
-2.4116 <s> TWENTY 0.0000
-2.1106 <s> TWO 0.0000
-2.4116 <s> WATERMELON 0.0000
-2.4116 <s> WEIGHT 0.0000
-2.4116 <s> WHAT 0.0000
-2.4116 <s> WITH 0.0000
-2.4116 <s> YES 0.0000
-2.4116 <s> YOGURT 0.0000
-2.4116 <s> YOLK 0.0000
-2.4116 <s> ZERO 0.0000
-0.3010 ACTIVE </s> -0.3010
-0.3010 ADMIN </s> -0.3010
-0.3010 AFTERNOON TEA 0.0000
-0.3010 AND </s> -0.3010
-0.3010 APPLE </s> -0.3010
-0.3010 BANANA </s> -0.3010
-0.3010 BEEF </s> -0.3010
-0.3010 BEVERAGE </s> -0.3010
-0.3010 BOILED </s> -0.3010
-0.3010 BOWL </s> -0.3010
-0.3010 BREAD </s> -0.3010
-0.3010 BREAKFAST </s> -0.3010
-0.3010 BRUNCH </s> -0.3010
-0.3010 BUTTER </s> -0.3010
-0.3010 CALORIE </s> -0.3010
-0.3010 CANCEL </s> -0.3010
-0.3010 CHEESE </s> -0.3010
-0.3010 CHICKEN </s> -0.3010
-0.3010 CODE </s> -0.3010
-0.3010 CONFRIM </s> -0.3010
-0.3010 COUPON </s> -0.3010
-0.3010 CREAM </s> -0.3010
-0.3010 CUCUMBER </s> -0.3010
-0.3010 DESSERT </s> -0.3010
-0.3010 DINNER </s> -0.3010
-0.3010 DISABLE </s> -0.3010
-0.3010 DRESSING </s> -0.3010
-0.3010 DRIED </s> -0.3010
-0.3010 EGG </s> -0.3010
-0.3010 EIGHT </s> -0.3010
-0.3010 EIGHTEEN </s> -0.3010
-0.3010 EIGHTY </s> -0.3010
-0.3010 ELEVEN </s> -0.3010
-0.3010 ENABLE </s> -0.3010
-0.3010 FAT </s> -0.3010
-0.3010 FEMALE </s> -0.3010
-0.3010 FIFTEEN </s> -0.3010
-0.3010 FIFTY </s> -0.3010
-0.3010 FINE </s> -0.3010
-0.3010 FINISH </s> -0.3010
-0.3010 FINISHED </s> -0.3010
-0.3010 FIVE </s> -0.3010
-0.3010 FORTY </s> -0.3010
-0.3010 FOUR </s> -0.3010
-0.3010 FOURTEEN </s> -0.3010
-0.3010 FRESH </s> -0.3010
-0.3010 FRIED </s> -0.3010
-0.3010 FRIEND </s> -0.3010
-0.3010 FRUIT </s> -0.3010
-0.3010 GARIC </s> -0.3010
-0.3010 GRAM </s> -0.3010
-0.3010 GRAPE </s> -0.3010
-0.3010 HAMBURGER </s> -0.3010
-0.3010 HELLO </s> -0.3010
-0.3010 HOW </s> -0.3010
-0.7782 HUNDRED </s> -0.3010
-0.4771 HUNDRED AND 0.0000
-0.3010 ICE </s> -0.3010
-0.3010 INTENSIVE </s> -0.3010
-0.3010 JUICE </s> -0.3010
-0.3010 KETCHUP </s> -0.3010
-0.3010 KILLO </s> -0.3010
-0.3010 LAMB </s> -0.3010
-0.3010 LATICE </s> -0.3010
-0.3010 LEAF </s> -0.3010
-0.3010 LEAVE </s> -0.3010
-0.3010 LIGHT </s> -0.3010
-0.3010 LITTLE </s> -0.3010
-0.3010 LUNCH </s> -0.3010
-0.3010 MALE </s> -0.3010
-0.3010 MEAT </s> -0.3010
-0.3010 MENU </s> -0.3010
-0.3010 MILK </s> -0.3010
-0.3010 MODE </s> -0.3010
-0.3010 MODERATE </s> -0.3010
-0.3010 MOZZARELLA </s> -0.3010
-0.3010 NINE </s> -0.3010
-0.3010 NINETEEN </s> -0.3010
-0.3010 NINETY </s> -0.3010
-0.3010 NO </s> -0.3010
-0.3010 NOODLE </s> -0.3010
-0.3010 NUTRIENT </s> -0.3010
-0.6021 ONE </s> -0.3010
-0.6021 ONE HUNDRED -0.1249
-0.3010 ONION </s> -0.3010
-0.3010 PEACH </s> -0.3010
-0.3010 PEPPER </s> -0.3010
-0.3010 PICKLE </s> -0.3010
-0.3010 PIZZA </s> -0.3010
-0.3010 PORK </s> -0.3010
-0.3010 POTATO </s> -0.3010
-0.3010 POULTRY </s> -0.3010
-0.3010 RAW </s> -0.3010
-0.3010 RECOMMEND </s> -0.3010
-0.3010 RECOMMENDATION </s> -0.3010
-0.3010 REFERENCE </s> -0.3010
-0.3010 RICE </s> -0.3010
-0.3010 SALAD </s> -0.3010
-0.3010 SALT </s> -0.3010
-0.3010 SAUCE </s> -0.3010
-0.3010 SET </s> -0.3010
-0.3010 SETTING </s> -0.3010
-0.3010 SEVEN </s> -0.3010
-0.3010 SEVENTEEN </s> -0.3010
-0.3010 SEVENTY </s> -0.3010
-0.3010 SHEEP </s> -0.3010
-0.3010 SIX </s> -0.3010
-0.3010 SIXTEEN </s> -0.3010
-0.3010 SIXTY </s> -0.3010
-0.3010 SOUP </s> -0.3010
-0.3010 SPICES </s> -0.3010
-0.3010 STEAMED </s> -0.3010
-0.3010 SUPPER </s> -0.3010
-0.3010 TEA </s> -0.3010
-0.3010 TEN </s> -0.3010
-0.3010 THIRTEEN </s> -0.3010
-0.3010 THIRTY </s> -0.3010
-0.3010 THREE </s> -0.3010
-0.3010 TOMATO </s> -0.3010
-0.3010 TWELVE </s> -0.3010
-0.3010 TWENTY </s> -0.3010
-0.6021 TWO </s> -0.3010
-0.6021 TWO HUNDRED -0.1249
-0.3010 WATERMELON </s> -0.3010
-0.3010 WEIGHT </s> -0.3010
-0.3010 WHAT </s> -0.3010
-0.3010 WITH </s> -0.3010
-0.3010 YES </s> -0.3010
-0.3010 YOGURT </s> -0.3010
-0.3010 YOLK </s> -0.3010
-0.3010 ZERO </s> -0.3010

\3-grams:
-0.3010 <s> ACTIVE </s>
-0.3010 <s> ADMIN </s>
-0.3010 <s> AFTERNOON TEA
-0.3010 <s> AND </s>
-0.3010 <s> APPLE </s>
-0.3010 <s> BANANA </s>
-0.3010 <s> BEEF </s>
-0.3010 <s> BEVERAGE </s>
-0.3010 <s> BOILED </s>
-0.3010 <s> BOWL </s>
-0.3010 <s> BREAD </s>
-0.3010 <s> BREAKFAST </s>
-0.3010 <s> BRUNCH </s>
-0.3010 <s> BUTTER </s>
-0.3010 <s> CALORIE </s>
-0.3010 <s> CANCEL </s>
-0.3010 <s> CHEESE </s>
-0.3010 <s> CHICKEN </s>
-0.3010 <s> CODE </s>
-0.3010 <s> CONFRIM </s>
-0.3010 <s> COUPON </s>
-0.3010 <s> CREAM </s>
-0.3010 <s> CUCUMBER </s>
-0.3010 <s> DESSERT </s>
-0.3010 <s> DINNER </s>
-0.3010 <s> DISABLE </s>
-0.3010 <s> DRESSING </s>
-0.3010 <s> DRIED </s>
-0.3010 <s> EGG </s>
-0.3010 <s> EIGHT </s>
-0.3010 <s> EIGHTEEN </s>
-0.3010 <s> EIGHTY </s>
-0.3010 <s> ELEVEN </s>
-0.3010 <s> ENABLE </s>
-0.3010 <s> FAT </s>
-0.3010 <s> FEMALE </s>
-0.3010 <s> FIFTEEN </s>
-0.3010 <s> FIFTY </s>
-0.3010 <s> FINE </s>
-0.3010 <s> FINISH </s>
-0.3010 <s> FINISHED </s>
-0.3010 <s> FIVE </s>
-0.3010 <s> FORTY </s>
-0.3010 <s> FOUR </s>
-0.3010 <s> FOURTEEN </s>
-0.3010 <s> FRESH </s>
-0.3010 <s> FRIED </s>
-0.3010 <s> FRIEND </s>
-0.3010 <s> FRUIT </s>
-0.3010 <s> GARIC </s>
-0.3010 <s> GRAM </s>
-0.3010 <s> GRAPE </s>
-0.3010 <s> HAMBURGER </s>
-0.3010 <s> HELLO </s>
-0.3010 <s> HOW </s>
-0.3010 <s> HUNDRED </s>
-0.3010 <s> ICE </s>
-0.3010 <s> INTENSIVE </s>
-0.3010 <s> JUICE </s>
-0.3010 <s> KETCHUP </s>
-0.3010 <s> KILLO </s>
-0.3010 <s> LAMB </s>
-0.3010 <s> LATICE </s>
-0.3010 <s> LEAF </s>
-0.3010 <s> LEAVE </s>
-0.3010 <s> LIGHT </s>
-0.3010 <s> LITTLE </s>
-0.3010 <s> LUNCH </s>
-0.3010 <s> MALE </s>
-0.3010 <s> MEAT </s>
-0.3010 <s> MENU </s>
-0.3010 <s> MILK </s>
-0.3010 <s> MODE </s>
-0.3010 <s> MODERATE </s>
-0.3010 <s> MOZZARELLA </s>
-0.3010 <s> NINE </s>
-0.3010 <s> NINETEEN </s>
-0.3010 <s> NINETY </s>
-0.3010 <s> NO </s>
-0.3010 <s> NOODLE </s>
-0.3010 <s> NUTRIENT </s>
-0.6021 <s> ONE </s>
-0.6021 <s> ONE HUNDRED
-0.3010 <s> ONION </s>
-0.3010 <s> PEACH </s>
-0.3010 <s> PEPPER </s>
-0.3010 <s> PICKLE </s>
-0.3010 <s> PIZZA </s>
-0.3010 <s> PORK </s>
-0.3010 <s> POTATO </s>
-0.3010 <s> POULTRY </s>
-0.3010 <s> RAW </s>
-0.3010 <s> RECOMMEND </s>
-0.3010 <s> RECOMMENDATION </s>
-0.3010 <s> REFERENCE </s>
-0.3010 <s> RICE </s>
-0.3010 <s> SALAD </s>
-0.3010 <s> SALT </s>
-0.3010 <s> SAUCE </s>
-0.3010 <s> SET </s>
-0.3010 <s> SETTING </s>
-0.3010 <s> SEVEN </s>
-0.3010 <s> SEVENTEEN </s>
-0.3010 <s> SEVENTY </s>
-0.3010 <s> SHEEP </s>
-0.3010 <s> SIX </s>
-0.3010 <s> SIXTEEN </s>
-0.3010 <s> SIXTY </s>
-0.3010 <s> SOUP </s>
-0.3010 <s> SPICES </s>
-0.3010 <s> STEAMED </s>
-0.3010 <s> SUPPER </s>
-0.3010 <s> TEN </s>
-0.3010 <s> THIRTEEN </s>
-0.3010 <s> THIRTY </s>
-0.3010 <s> THREE </s>
-0.3010 <s> TOMATO </s>
-0.3010 <s> TWELVE </s>
-0.3010 <s> TWENTY </s>
-0.6021 <s> TWO </s>
-0.6021 <s> TWO HUNDRED
-0.3010 <s> WATERMELON </s>
-0.3010 <s> WEIGHT </s>
-0.3010 <s> WHAT </s>
-0.3010 <s> WITH </s>
-0.3010 <s> YES </s>
-0.3010 <s> YOGURT </s>
-0.3010 <s> YOLK </s>
-0.3010 <s> ZERO </s>
-0.3010 AFTERNOON TEA </s>
-0.3010 HUNDRED AND </s>
-0.3010 ONE HUNDRED AND
-0.3010 TWO HUNDRED AND

\end\
