Language model created by QuickLM on Fri Nov 17 05:51:13 EST 2017
Copyright (c) 1996-2010 Carnegie Mellon University and Alexander I. Rudnicky

The model is in standard ARPA format, designed by Doug Paul while he was at MITRE.

The code that was used to produce this language model is available in Open Source.
Please visit http://www.speech.cs.cmu.edu/tools/ for more information

The (fixed) discount mass is 0.5. The backoffs are computed using the ratio method.
This model based on a corpus of 56 sentences and 59 words

\data\
ngram 1=59
ngram 2=113
ngram 3=57

\1-grams:
-0.7807 </s> -0.3010
-0.7807 <s> -0.2224
-2.5289 ACTIVE -0.2224
-2.5289 AFTERNOON -0.2997
-2.5289 AND -0.2224
-2.5289 BEEF -0.2224
-2.5289 BOILED -0.2224
-2.5289 BREAD -0.2224
-2.5289 BREAKFAST -0.2224
-2.5289 BRUNCH -0.2224
-2.5289 CANCEL -0.2224
-2.5289 CHICKEN -0.2224
-2.5289 CONFRIM -0.2224
-2.5289 CUCUMBER -0.2224
-2.5289 DINNER -0.2224
-2.5289 DISABLE -0.2224
-2.5289 ENABLE -0.2224
-2.5289 FEMALE -0.2224
-2.5289 FINE -0.2224
-2.5289 FINISH -0.2224
-2.5289 FINISHED -0.2224
-2.5289 FRIED -0.2224
-2.5289 HAMBURGER -0.2224
-2.5289 HOW -0.2224
-2.5289 INTENSIVE -0.2224
-2.5289 KETCHUP -0.2224
-2.5289 LAMB -0.2224
-2.5289 LATICE -0.2224
-2.5289 LEAVE -0.2224
-2.5289 LIGHT -0.2224
-2.5289 LITTLE -0.2224
-2.5289 LUNCH -0.2224
-2.5289 MALE -0.2224
-2.5289 MEAT -0.2224
-2.5289 MODERATE -0.2224
-2.5289 NO -0.2224
-2.5289 NOODLE -0.2224
-2.5289 ONION -0.2224
-2.5289 PICKLE -0.2224
-2.5289 PIZZA -0.2224
-2.5289 PORK -0.2224
-2.5289 POTATO -0.2224
-2.5289 RAW -0.2224
-2.5289 RECOMMEND -0.2224
-2.5289 RECOMMENDATION -0.2224
-2.5289 REFERENCE -0.2224
-2.5289 RICE -0.2224
-2.5289 SALAD -0.2224
-2.5289 SAUCE -0.2224
-2.5289 SET -0.2224
-2.5289 SETTING -0.2224
-2.5289 STEAMED -0.2224
-2.5289 SUPPER -0.2224
-2.5289 TEA -0.2224
-2.5289 TOMATO -0.2224
-2.5289 WHY -0.2224
-2.5289 WITH -0.2224
-2.5289 YEP -0.2224
-2.5289 YES -0.2224

\2-grams:
-2.0492 <s> ACTIVE 0.0000
-2.0492 <s> AFTERNOON 0.0000
-2.0492 <s> AND 0.0000
-2.0492 <s> BEEF 0.0000
-2.0492 <s> BOILED 0.0000
-2.0492 <s> BREAD 0.0000
-2.0492 <s> BREAKFAST 0.0000
-2.0492 <s> BRUNCH 0.0000
-2.0492 <s> CANCEL 0.0000
-2.0492 <s> CHICKEN 0.0000
-2.0492 <s> CONFRIM 0.0000
-2.0492 <s> CUCUMBER 0.0000
-2.0492 <s> DINNER 0.0000
-2.0492 <s> DISABLE 0.0000
-2.0492 <s> ENABLE 0.0000
-2.0492 <s> FEMALE 0.0000
-2.0492 <s> FINE 0.0000
-2.0492 <s> FINISH 0.0000
-2.0492 <s> FINISHED 0.0000
-2.0492 <s> FRIED 0.0000
-2.0492 <s> HAMBURGER 0.0000
-2.0492 <s> HOW 0.0000
-2.0492 <s> INTENSIVE 0.0000
-2.0492 <s> KETCHUP 0.0000
-2.0492 <s> LAMB 0.0000
-2.0492 <s> LATICE 0.0000
-2.0492 <s> LEAVE 0.0000
-2.0492 <s> LIGHT 0.0000
-2.0492 <s> LITTLE 0.0000
-2.0492 <s> LUNCH 0.0000
-2.0492 <s> MALE 0.0000
-2.0492 <s> MEAT 0.0000
-2.0492 <s> MODERATE 0.0000
-2.0492 <s> NO 0.0000
-2.0492 <s> NOODLE 0.0000
-2.0492 <s> ONION 0.0000
-2.0492 <s> PICKLE 0.0000
-2.0492 <s> PIZZA 0.0000
-2.0492 <s> PORK 0.0000
-2.0492 <s> POTATO 0.0000
-2.0492 <s> RAW 0.0000
-2.0492 <s> RECOMMEND 0.0000
-2.0492 <s> RECOMMENDATION 0.0000
-2.0492 <s> REFERENCE 0.0000
-2.0492 <s> RICE 0.0000
-2.0492 <s> SALAD 0.0000
-2.0492 <s> SAUCE 0.0000
-2.0492 <s> SET 0.0000
-2.0492 <s> SETTING 0.0000
-2.0492 <s> STEAMED 0.0000
-2.0492 <s> SUPPER 0.0000
-2.0492 <s> TOMATO 0.0000
-2.0492 <s> WHY 0.0000
-2.0492 <s> WITH 0.0000
-2.0492 <s> YEP 0.0000
-2.0492 <s> YES 0.0000
-0.3010 ACTIVE </s> -0.3010
-0.3010 AFTERNOON TEA 0.0000
-0.3010 AND </s> -0.3010
-0.3010 BEEF </s> -0.3010
-0.3010 BOILED </s> -0.3010
-0.3010 BREAD </s> -0.3010
-0.3010 BREAKFAST </s> -0.3010
-0.3010 BRUNCH </s> -0.3010
-0.3010 CANCEL </s> -0.3010
-0.3010 CHICKEN </s> -0.3010
-0.3010 CONFRIM </s> -0.3010
-0.3010 CUCUMBER </s> -0.3010
-0.3010 DINNER </s> -0.3010
-0.3010 DISABLE </s> -0.3010
-0.3010 ENABLE </s> -0.3010
-0.3010 FEMALE </s> -0.3010
-0.3010 FINE </s> -0.3010
-0.3010 FINISH </s> -0.3010
-0.3010 FINISHED </s> -0.3010
-0.3010 FRIED </s> -0.3010
-0.3010 HAMBURGER </s> -0.3010
-0.3010 HOW </s> -0.3010
-0.3010 INTENSIVE </s> -0.3010
-0.3010 KETCHUP </s> -0.3010
-0.3010 LAMB </s> -0.3010
-0.3010 LATICE </s> -0.3010
-0.3010 LEAVE </s> -0.3010
-0.3010 LIGHT </s> -0.3010
-0.3010 LITTLE </s> -0.3010
-0.3010 LUNCH </s> -0.3010
-0.3010 MALE </s> -0.3010
-0.3010 MEAT </s> -0.3010
-0.3010 MODERATE </s> -0.3010
-0.3010 NO </s> -0.3010
-0.3010 NOODLE </s> -0.3010
-0.3010 ONION </s> -0.3010
-0.3010 PICKLE </s> -0.3010
-0.3010 PIZZA </s> -0.3010
-0.3010 PORK </s> -0.3010
-0.3010 POTATO </s> -0.3010
-0.3010 RAW </s> -0.3010
-0.3010 RECOMMEND </s> -0.3010
-0.3010 RECOMMENDATION </s> -0.3010
-0.3010 REFERENCE </s> -0.3010
-0.3010 RICE </s> -0.3010
-0.3010 SALAD </s> -0.3010
-0.3010 SAUCE </s> -0.3010
-0.3010 SET </s> -0.3010
-0.3010 SETTING </s> -0.3010
-0.3010 STEAMED </s> -0.3010
-0.3010 SUPPER </s> -0.3010
-0.3010 TEA </s> -0.3010
-0.3010 TOMATO </s> -0.3010
-0.3010 WHY </s> -0.3010
-0.3010 WITH </s> -0.3010
-0.3010 YEP </s> -0.3010
-0.3010 YES </s> -0.3010

\3-grams:
-0.3010 <s> ACTIVE </s>
-0.3010 <s> AFTERNOON TEA
-0.3010 <s> AND </s>
-0.3010 <s> BEEF </s>
-0.3010 <s> BOILED </s>
-0.3010 <s> BREAD </s>
-0.3010 <s> BREAKFAST </s>
-0.3010 <s> BRUNCH </s>
-0.3010 <s> CANCEL </s>
-0.3010 <s> CHICKEN </s>
-0.3010 <s> CONFRIM </s>
-0.3010 <s> CUCUMBER </s>
-0.3010 <s> DINNER </s>
-0.3010 <s> DISABLE </s>
-0.3010 <s> ENABLE </s>
-0.3010 <s> FEMALE </s>
-0.3010 <s> FINE </s>
-0.3010 <s> FINISH </s>
-0.3010 <s> FINISHED </s>
-0.3010 <s> FRIED </s>
-0.3010 <s> HAMBURGER </s>
-0.3010 <s> HOW </s>
-0.3010 <s> INTENSIVE </s>
-0.3010 <s> KETCHUP </s>
-0.3010 <s> LAMB </s>
-0.3010 <s> LATICE </s>
-0.3010 <s> LEAVE </s>
-0.3010 <s> LIGHT </s>
-0.3010 <s> LITTLE </s>
-0.3010 <s> LUNCH </s>
-0.3010 <s> MALE </s>
-0.3010 <s> MEAT </s>
-0.3010 <s> MODERATE </s>
-0.3010 <s> NO </s>
-0.3010 <s> NOODLE </s>
-0.3010 <s> ONION </s>
-0.3010 <s> PICKLE </s>
-0.3010 <s> PIZZA </s>
-0.3010 <s> PORK </s>
-0.3010 <s> POTATO </s>
-0.3010 <s> RAW </s>
-0.3010 <s> RECOMMEND </s>
-0.3010 <s> RECOMMENDATION </s>
-0.3010 <s> REFERENCE </s>
-0.3010 <s> RICE </s>
-0.3010 <s> SALAD </s>
-0.3010 <s> SAUCE </s>
-0.3010 <s> SET </s>
-0.3010 <s> SETTING </s>
-0.3010 <s> STEAMED </s>
-0.3010 <s> SUPPER </s>
-0.3010 <s> TOMATO </s>
-0.3010 <s> WHY </s>
-0.3010 <s> WITH </s>
-0.3010 <s> YEP </s>
-0.3010 <s> YES </s>
-0.3010 AFTERNOON TEA </s>

\end\
