Language model created by QuickLM on Fri Nov 17 08:30:55 EST 2017
Copyright (c) 1996-2010 Carnegie Mellon University and Alexander I. Rudnicky

The model is in standard ARPA format, designed by Doug Paul while he was at MITRE.

The code that was used to produce this language model is available in Open Source.
Please visit http://www.speech.cs.cmu.edu/tools/ for more information

The (fixed) discount mass is 0.5. The backoffs are computed using the ratio method.
This model based on a corpus of 124 sentences and 125 words

\data\
ngram 1=125
ngram 2=248
ngram 3=128

\1-grams:
-0.7839 </s> -0.3010
-0.7839 <s> -0.2202
-2.8774 ACTIVE -0.2230
-2.8774 AFTERNOON -0.3005
-2.4003 AND -0.2230
-2.8774 APPLE -0.2230
-2.8774 BANANA -0.2230
-2.8774 BEEF -0.2230
-2.8774 BEVERAGE -0.2230
-2.8774 BOILED -0.2230
-2.8774 BOWL -0.2230
-2.8774 BREAD -0.2230
-2.8774 BREAKFAST -0.2230
-2.8774 BRUNCH -0.2230
-2.8774 BUTTER -0.2230
-2.8774 CALORIE -0.2230
-2.8774 CANCEL -0.2230
-2.8774 CHEESE -0.2230
-2.8774 CHICKEN -0.2230
-2.8774 CONFRIM -0.2230
-2.8774 CREAM -0.2230
-2.8774 CUCUMBER -0.2230
-2.8774 DESSERT -0.2230
-2.8774 DINNER -0.2230
-2.8774 DISABLE -0.2230
-2.8774 DRESSING -0.2230
-2.8774 DRIED -0.2230
-2.8774 EGG -0.2230
-2.8774 EIGHT -0.2230
-2.8774 EIGHTEEN -0.2230
-2.8774 EIGHTY -0.2230
-2.8774 ELEVEN -0.2230
-2.8774 ENABLE -0.2230
-2.8774 FAT -0.2230
-2.8774 FEMALE -0.2230
-2.8774 FIFTEEN -0.2230
-2.8774 FIFTY -0.2230
-2.8774 FINE -0.2230
-2.8774 FINISH -0.2230
-2.8774 FINISHED -0.2230
-2.8774 FIVE -0.2230
-2.8774 FORTY -0.2230
-2.8774 FOUR -0.2230
-2.8774 FOURTEEN -0.2230
-2.8774 FRESH -0.2230
-2.8774 FRIED -0.2230
-2.8774 FRUIT -0.2230
-2.8774 GARIC -0.2230
-2.8774 GRAM -0.2230
-2.8774 GRAPE -0.2230
-2.8774 HAMBURGER -0.2230
-2.8774 HELLO -0.2230
-2.8774 HOW -0.2230
-2.4003 HUNDRED -0.2209
-2.8774 ICE -0.2230
-2.8774 INTENSIVE -0.2230
-2.8774 JUICE -0.2230
-2.8774 KETCHUP -0.2230
-2.8774 KILLO -0.2230
-2.8774 LAMB -0.2230
-2.8774 LATICE -0.2230
-2.8774 LEAF -0.2230
-2.8774 LEAVE -0.2230
-2.8774 LIGHT -0.2230
-2.8774 LITTLE -0.2230
-2.8774 LUNCH -0.2230
-2.8774 MALE -0.2230
-2.8774 MEAT -0.2230
-2.8774 MENU -0.2230
-2.8774 MILK -0.2230
-2.8774 MODERATE -0.2230
-2.8774 MOZZARELLA -0.2230
-2.8774 NIGHTY -0.2230
-2.8774 NINE -0.2230
-2.8774 NINETEEN -0.2230
-2.8774 NO -0.2230
-2.8774 NOODLE -0.2230
-2.5763 ONE -0.2209
-2.8774 ONION -0.2230
-2.8774 PEACH -0.2230
-2.8774 PEPPER -0.2230
-2.8774 PICKLE -0.2230
-2.8774 PIZZA -0.2230
-2.8774 PORK -0.2230
-2.8774 POTATO -0.2230
-2.8774 POULTRY -0.2230
-2.8774 PUMPKIN -0.2230
-2.8774 RAW -0.2230
-2.8774 RECOMMEND -0.2230
-2.8774 RECOMMENDATION -0.2230
-2.8774 REFERENCE -0.2230
-2.8774 RICE -0.2230
-2.8774 SALAD -0.2230
-2.8774 SALT -0.2230
-2.8774 SAUCE -0.2230
-2.8774 SET -0.2230
-2.8774 SETTING -0.2230
-2.8774 SEVEN -0.2230
-2.8774 SEVENTEEN -0.2230
-2.8774 SEVENTY -0.2230
-2.8774 SHEEP -0.2230
-2.8774 SIX -0.2230
-2.8774 SIXTEEN -0.2230
-2.8774 SIXTY -0.2230
-2.8774 SOUP -0.2230
-2.8774 SPICES -0.2230
-2.8774 STEAMED -0.2230
-2.8774 SUPPER -0.2230
-2.8774 TEA -0.2230
-2.8774 TEN -0.2230
-2.8774 THIRTEEN -0.2230
-2.8774 THIRTY -0.2230
-2.8774 THREE -0.2230
-2.8774 TOMATO -0.2230
-2.8774 TWELVE -0.2230
-2.8774 TWENTY -0.2230
-2.5763 TWO -0.2209
-2.8774 WATERMELON -0.2230
-2.8774 WHAT -0.2230
-2.8774 WITH -0.2230
-2.8774 YEP -0.2230
-2.8774 YES -0.2230
-2.8774 YOGURT -0.2230
-2.8774 YOLK -0.2230
-2.8774 ZERO -0.2230

\2-grams:
-2.3945 <s> ACTIVE 0.0000
-2.3945 <s> AFTERNOON 0.0000
-2.3945 <s> AND 0.0000
-2.3945 <s> APPLE 0.0000
-2.3945 <s> BANANA 0.0000
-2.3945 <s> BEEF 0.0000
-2.3945 <s> BEVERAGE 0.0000
-2.3945 <s> BOILED 0.0000
-2.3945 <s> BOWL 0.0000
-2.3945 <s> BREAD 0.0000
-2.3945 <s> BREAKFAST 0.0000
-2.3945 <s> BRUNCH 0.0000
-2.3945 <s> BUTTER 0.0000
-2.3945 <s> CALORIE 0.0000
-2.3945 <s> CANCEL 0.0000
-2.3945 <s> CHEESE 0.0000
-2.3945 <s> CHICKEN 0.0000
-2.3945 <s> CONFRIM 0.0000
-2.3945 <s> CREAM 0.0000
-2.3945 <s> CUCUMBER 0.0000
-2.3945 <s> DESSERT 0.0000
-2.3945 <s> DINNER 0.0000
-2.3945 <s> DISABLE 0.0000
-2.3945 <s> DRESSING 0.0000
-2.3945 <s> DRIED 0.0000
-2.3945 <s> EGG 0.0000
-2.3945 <s> EIGHT 0.0000
-2.3945 <s> EIGHTEEN 0.0000
-2.3945 <s> EIGHTY 0.0000
-2.3945 <s> ELEVEN 0.0000
-2.3945 <s> ENABLE 0.0000
-2.3945 <s> FAT 0.0000
-2.3945 <s> FEMALE 0.0000
-2.3945 <s> FIFTEEN 0.0000
-2.3945 <s> FIFTY 0.0000
-2.3945 <s> FINE 0.0000
-2.3945 <s> FINISH 0.0000
-2.3945 <s> FINISHED 0.0000
-2.3945 <s> FIVE 0.0000
-2.3945 <s> FORTY 0.0000
-2.3945 <s> FOUR 0.0000
-2.3945 <s> FOURTEEN 0.0000
-2.3945 <s> FRESH 0.0000
-2.3945 <s> FRIED 0.0000
-2.3945 <s> FRUIT 0.0000
-2.3945 <s> GARIC 0.0000
-2.3945 <s> GRAM 0.0000
-2.3945 <s> GRAPE 0.0000
-2.3945 <s> HAMBURGER 0.0000
-2.3945 <s> HELLO 0.0000
-2.3945 <s> HOW 0.0000
-2.3945 <s> HUNDRED -0.2218
-2.3945 <s> ICE 0.0000
-2.3945 <s> INTENSIVE 0.0000
-2.3945 <s> JUICE 0.0000
-2.3945 <s> KETCHUP 0.0000
-2.3945 <s> KILLO 0.0000
-2.3945 <s> LAMB 0.0000
-2.3945 <s> LATICE 0.0000
-2.3945 <s> LEAF 0.0000
-2.3945 <s> LEAVE 0.0000
-2.3945 <s> LIGHT 0.0000
-2.3945 <s> LITTLE 0.0000
-2.3945 <s> LUNCH 0.0000
-2.3945 <s> MALE 0.0000
-2.3945 <s> MEAT 0.0000
-2.3945 <s> MENU 0.0000
-2.3945 <s> MILK 0.0000
-2.3945 <s> MODERATE 0.0000
-2.3945 <s> MOZZARELLA 0.0000
-2.3945 <s> NIGHTY 0.0000
-2.3945 <s> NINE 0.0000
-2.3945 <s> NINETEEN 0.0000
-2.3945 <s> NO 0.0000
-2.3945 <s> NOODLE 0.0000
-2.0934 <s> ONE 0.0000
-2.3945 <s> ONION 0.0000
-2.3945 <s> PEACH 0.0000
-2.3945 <s> PEPPER 0.0000
-2.3945 <s> PICKLE 0.0000
-2.3945 <s> PIZZA 0.0000
-2.3945 <s> PORK 0.0000
-2.3945 <s> POTATO 0.0000
-2.3945 <s> POULTRY 0.0000
-2.3945 <s> PUMPKIN 0.0000
-2.3945 <s> RAW 0.0000
-2.3945 <s> RECOMMEND 0.0000
-2.3945 <s> RECOMMENDATION 0.0000
-2.3945 <s> REFERENCE 0.0000
-2.3945 <s> RICE 0.0000
-2.3945 <s> SALAD 0.0000
-2.3945 <s> SALT 0.0000
-2.3945 <s> SAUCE 0.0000
-2.3945 <s> SET 0.0000
-2.3945 <s> SETTING 0.0000
-2.3945 <s> SEVEN 0.0000
-2.3945 <s> SEVENTEEN 0.0000
-2.3945 <s> SEVENTY 0.0000
-2.3945 <s> SHEEP 0.0000
-2.3945 <s> SIX 0.0000
-2.3945 <s> SIXTEEN 0.0000
-2.3945 <s> SIXTY 0.0000
-2.3945 <s> SOUP 0.0000
-2.3945 <s> SPICES 0.0000
-2.3945 <s> STEAMED 0.0000
-2.3945 <s> SUPPER 0.0000
-2.3945 <s> TEN 0.0000
-2.3945 <s> THIRTEEN 0.0000
-2.3945 <s> THIRTY 0.0000
-2.3945 <s> THREE 0.0000
-2.3945 <s> TOMATO 0.0000
-2.3945 <s> TWELVE 0.0000
-2.3945 <s> TWENTY 0.0000
-2.0934 <s> TWO 0.0000
-2.3945 <s> WATERMELON 0.0000
-2.3945 <s> WHAT 0.0000
-2.3945 <s> WITH 0.0000
-2.3945 <s> YEP 0.0000
-2.3945 <s> YES 0.0000
-2.3945 <s> YOGURT 0.0000
-2.3945 <s> YOLK 0.0000
-2.3945 <s> ZERO 0.0000
-0.3010 ACTIVE </s> -0.3010
-0.3010 AFTERNOON TEA 0.0000
-0.3010 AND </s> -0.3010
-0.3010 APPLE </s> -0.3010
-0.3010 BANANA </s> -0.3010
-0.3010 BEEF </s> -0.3010
-0.3010 BEVERAGE </s> -0.3010
-0.3010 BOILED </s> -0.3010
-0.3010 BOWL </s> -0.3010
-0.3010 BREAD </s> -0.3010
-0.3010 BREAKFAST </s> -0.3010
-0.3010 BRUNCH </s> -0.3010
-0.3010 BUTTER </s> -0.3010
-0.3010 CALORIE </s> -0.3010
-0.3010 CANCEL </s> -0.3010
-0.3010 CHEESE </s> -0.3010
-0.3010 CHICKEN </s> -0.3010
-0.3010 CONFRIM </s> -0.3010
-0.3010 CREAM </s> -0.3010
-0.3010 CUCUMBER </s> -0.3010
-0.3010 DESSERT </s> -0.3010
-0.3010 DINNER </s> -0.3010
-0.3010 DISABLE </s> -0.3010
-0.3010 DRESSING </s> -0.3010
-0.3010 DRIED </s> -0.3010
-0.3010 EGG </s> -0.3010
-0.3010 EIGHT </s> -0.3010
-0.3010 EIGHTEEN </s> -0.3010
-0.3010 EIGHTY </s> -0.3010
-0.3010 ELEVEN </s> -0.3010
-0.3010 ENABLE </s> -0.3010
-0.3010 FAT </s> -0.3010
-0.3010 FEMALE </s> -0.3010
-0.3010 FIFTEEN </s> -0.3010
-0.3010 FIFTY </s> -0.3010
-0.3010 FINE </s> -0.3010
-0.3010 FINISH </s> -0.3010
-0.3010 FINISHED </s> -0.3010
-0.3010 FIVE </s> -0.3010
-0.3010 FORTY </s> -0.3010
-0.3010 FOUR </s> -0.3010
-0.3010 FOURTEEN </s> -0.3010
-0.3010 FRESH </s> -0.3010
-0.3010 FRIED </s> -0.3010
-0.3010 FRUIT </s> -0.3010
-0.3010 GARIC </s> -0.3010
-0.3010 GRAM </s> -0.3010
-0.3010 GRAPE </s> -0.3010
-0.3010 HAMBURGER </s> -0.3010
-0.3010 HELLO </s> -0.3010
-0.3010 HOW </s> -0.3010
-0.7782 HUNDRED </s> -0.3010
-0.4771 HUNDRED AND 0.0000
-0.3010 ICE </s> -0.3010
-0.3010 INTENSIVE </s> -0.3010
-0.3010 JUICE </s> -0.3010
-0.3010 KETCHUP </s> -0.3010
-0.3010 KILLO </s> -0.3010
-0.3010 LAMB </s> -0.3010
-0.3010 LATICE </s> -0.3010
-0.3010 LEAF </s> -0.3010
-0.3010 LEAVE </s> -0.3010
-0.3010 LIGHT </s> -0.3010
-0.3010 LITTLE </s> -0.3010
-0.3010 LUNCH </s> -0.3010
-0.3010 MALE </s> -0.3010
-0.3010 MEAT </s> -0.3010
-0.3010 MENU </s> -0.3010
-0.3010 MILK </s> -0.3010
-0.3010 MODERATE </s> -0.3010
-0.3010 MOZZARELLA </s> -0.3010
-0.3010 NIGHTY </s> -0.3010
-0.3010 NINE </s> -0.3010
-0.3010 NINETEEN </s> -0.3010
-0.3010 NO </s> -0.3010
-0.3010 NOODLE </s> -0.3010
-0.6021 ONE </s> -0.3010
-0.6021 ONE HUNDRED -0.1249
-0.3010 ONION </s> -0.3010
-0.3010 PEACH </s> -0.3010
-0.3010 PEPPER </s> -0.3010
-0.3010 PICKLE </s> -0.3010
-0.3010 PIZZA </s> -0.3010
-0.3010 PORK </s> -0.3010
-0.3010 POTATO </s> -0.3010
-0.3010 POULTRY </s> -0.3010
-0.3010 PUMPKIN </s> -0.3010
-0.3010 RAW </s> -0.3010
-0.3010 RECOMMEND </s> -0.3010
-0.3010 RECOMMENDATION </s> -0.3010
-0.3010 REFERENCE </s> -0.3010
-0.3010 RICE </s> -0.3010
-0.3010 SALAD </s> -0.3010
-0.3010 SALT </s> -0.3010
-0.3010 SAUCE </s> -0.3010
-0.3010 SET </s> -0.3010
-0.3010 SETTING </s> -0.3010
-0.3010 SEVEN </s> -0.3010
-0.3010 SEVENTEEN </s> -0.3010
-0.3010 SEVENTY </s> -0.3010
-0.3010 SHEEP </s> -0.3010
-0.3010 SIX </s> -0.3010
-0.3010 SIXTEEN </s> -0.3010
-0.3010 SIXTY </s> -0.3010
-0.3010 SOUP </s> -0.3010
-0.3010 SPICES </s> -0.3010
-0.3010 STEAMED </s> -0.3010
-0.3010 SUPPER </s> -0.3010
-0.3010 TEA </s> -0.3010
-0.3010 TEN </s> -0.3010
-0.3010 THIRTEEN </s> -0.3010
-0.3010 THIRTY </s> -0.3010
-0.3010 THREE </s> -0.3010
-0.3010 TOMATO </s> -0.3010
-0.3010 TWELVE </s> -0.3010
-0.3010 TWENTY </s> -0.3010
-0.6021 TWO </s> -0.3010
-0.6021 TWO HUNDRED -0.1249
-0.3010 WATERMELON </s> -0.3010
-0.3010 WHAT </s> -0.3010
-0.3010 WITH </s> -0.3010
-0.3010 YEP </s> -0.3010
-0.3010 YES </s> -0.3010
-0.3010 YOGURT </s> -0.3010
-0.3010 YOLK </s> -0.3010
-0.3010 ZERO </s> -0.3010

\3-grams:
-0.3010 <s> ACTIVE </s>
-0.3010 <s> AFTERNOON TEA
-0.3010 <s> AND </s>
-0.3010 <s> APPLE </s>
-0.3010 <s> BANANA </s>
-0.3010 <s> BEEF </s>
-0.3010 <s> BEVERAGE </s>
-0.3010 <s> BOILED </s>
-0.3010 <s> BOWL </s>
-0.3010 <s> BREAD </s>
-0.3010 <s> BREAKFAST </s>
-0.3010 <s> BRUNCH </s>
-0.3010 <s> BUTTER </s>
-0.3010 <s> CALORIE </s>
-0.3010 <s> CANCEL </s>
-0.3010 <s> CHEESE </s>
-0.3010 <s> CHICKEN </s>
-0.3010 <s> CONFRIM </s>
-0.3010 <s> CREAM </s>
-0.3010 <s> CUCUMBER </s>
-0.3010 <s> DESSERT </s>
-0.3010 <s> DINNER </s>
-0.3010 <s> DISABLE </s>
-0.3010 <s> DRESSING </s>
-0.3010 <s> DRIED </s>
-0.3010 <s> EGG </s>
-0.3010 <s> EIGHT </s>
-0.3010 <s> EIGHTEEN </s>
-0.3010 <s> EIGHTY </s>
-0.3010 <s> ELEVEN </s>
-0.3010 <s> ENABLE </s>
-0.3010 <s> FAT </s>
-0.3010 <s> FEMALE </s>
-0.3010 <s> FIFTEEN </s>
-0.3010 <s> FIFTY </s>
-0.3010 <s> FINE </s>
-0.3010 <s> FINISH </s>
-0.3010 <s> FINISHED </s>
-0.3010 <s> FIVE </s>
-0.3010 <s> FORTY </s>
-0.3010 <s> FOUR </s>
-0.3010 <s> FOURTEEN </s>
-0.3010 <s> FRESH </s>
-0.3010 <s> FRIED </s>
-0.3010 <s> FRUIT </s>
-0.3010 <s> GARIC </s>
-0.3010 <s> GRAM </s>
-0.3010 <s> GRAPE </s>
-0.3010 <s> HAMBURGER </s>
-0.3010 <s> HELLO </s>
-0.3010 <s> HOW </s>
-0.3010 <s> HUNDRED </s>
-0.3010 <s> ICE </s>
-0.3010 <s> INTENSIVE </s>
-0.3010 <s> JUICE </s>
-0.3010 <s> KETCHUP </s>
-0.3010 <s> KILLO </s>
-0.3010 <s> LAMB </s>
-0.3010 <s> LATICE </s>
-0.3010 <s> LEAF </s>
-0.3010 <s> LEAVE </s>
-0.3010 <s> LIGHT </s>
-0.3010 <s> LITTLE </s>
-0.3010 <s> LUNCH </s>
-0.3010 <s> MALE </s>
-0.3010 <s> MEAT </s>
-0.3010 <s> MENU </s>
-0.3010 <s> MILK </s>
-0.3010 <s> MODERATE </s>
-0.3010 <s> MOZZARELLA </s>
-0.3010 <s> NIGHTY </s>
-0.3010 <s> NINE </s>
-0.3010 <s> NINETEEN </s>
-0.3010 <s> NO </s>
-0.3010 <s> NOODLE </s>
-0.6021 <s> ONE </s>
-0.6021 <s> ONE HUNDRED
-0.3010 <s> ONION </s>
-0.3010 <s> PEACH </s>
-0.3010 <s> PEPPER </s>
-0.3010 <s> PICKLE </s>
-0.3010 <s> PIZZA </s>
-0.3010 <s> PORK </s>
-0.3010 <s> POTATO </s>
-0.3010 <s> POULTRY </s>
-0.3010 <s> PUMPKIN </s>
-0.3010 <s> RAW </s>
-0.3010 <s> RECOMMEND </s>
-0.3010 <s> RECOMMENDATION </s>
-0.3010 <s> REFERENCE </s>
-0.3010 <s> RICE </s>
-0.3010 <s> SALAD </s>
-0.3010 <s> SALT </s>
-0.3010 <s> SAUCE </s>
-0.3010 <s> SET </s>
-0.3010 <s> SETTING </s>
-0.3010 <s> SEVEN </s>
-0.3010 <s> SEVENTEEN </s>
-0.3010 <s> SEVENTY </s>
-0.3010 <s> SHEEP </s>
-0.3010 <s> SIX </s>
-0.3010 <s> SIXTEEN </s>
-0.3010 <s> SIXTY </s>
-0.3010 <s> SOUP </s>
-0.3010 <s> SPICES </s>
-0.3010 <s> STEAMED </s>
-0.3010 <s> SUPPER </s>
-0.3010 <s> TEN </s>
-0.3010 <s> THIRTEEN </s>
-0.3010 <s> THIRTY </s>
-0.3010 <s> THREE </s>
-0.3010 <s> TOMATO </s>
-0.3010 <s> TWELVE </s>
-0.3010 <s> TWENTY </s>
-0.6021 <s> TWO </s>
-0.6021 <s> TWO HUNDRED
-0.3010 <s> WATERMELON </s>
-0.3010 <s> WHAT </s>
-0.3010 <s> WITH </s>
-0.3010 <s> YEP </s>
-0.3010 <s> YES </s>
-0.3010 <s> YOGURT </s>
-0.3010 <s> YOLK </s>
-0.3010 <s> ZERO </s>
-0.3010 AFTERNOON TEA </s>
-0.3010 HUNDRED AND </s>
-0.3010 ONE HUNDRED AND
-0.3010 TWO HUNDRED AND

\end\
